<?xml version='1.0' encoding='utf-8'?>
<BIF VERSION="0.3">
  <NETWORK>
    <NAME>UNTITLED</NAME>
    <VARIABLE TYPE="nature">
      <NAME>Age</NAME>
      <OUTCOME>20_40</OUTCOME>
      <OUTCOME>40_50</OUTCOME>
      <OUTCOME>50_60</OUTCOME>
      <OUTCOME>60_70</OUTCOME>
      <OUTCOME>70_</OUTCOME>
      <PROPERTY />
    </VARIABLE>
    <VARIABLE TYPE="nature">
      <NAME>ChestPainType</NAME>
      <OUTCOME>ASY</OUTCOME>
      <OUTCOME>ATA</OUTCOME>
      <OUTCOME>NAP</OUTCOME>
      <OUTCOME>TA</OUTCOME>
      <PROPERTY />
    </VARIABLE>
    <VARIABLE TYPE="nature">
      <NAME>Cholesterol</NAME>
      <OUTCOME>200_240</OUTCOME>
      <OUTCOME>240_</OUTCOME>
      <OUTCOME>_200</OUTCOME>
      <PROPERTY />
    </VARIABLE>
    <VARIABLE TYPE="nature">
      <NAME>ExerciseAngina</NAME>
      <OUTCOME>N</OUTCOME>
      <OUTCOME>Y</OUTCOME>
      <PROPERTY />
    </VARIABLE>
    <VARIABLE TYPE="nature">
      <NAME>FastingBS</NAME>
      <OUTCOME>N</OUTCOME>
      <OUTCOME>Y</OUTCOME>
      <PROPERTY />
    </VARIABLE>
    <VARIABLE TYPE="nature">
      <NAME>HeartDisease</NAME>
      <OUTCOME>0</OUTCOME>
      <OUTCOME>1</OUTCOME>
      <PROPERTY />
    </VARIABLE>
    <VARIABLE TYPE="nature">
      <NAME>MaxHR</NAME>
      <OUTCOME>high</OUTCOME>
      <OUTCOME>low</OUTCOME>
      <OUTCOME>medium</OUTCOME>
      <OUTCOME>very_high</OUTCOME>
      <PROPERTY />
    </VARIABLE>
    <VARIABLE TYPE="nature">
      <NAME>Oldpeak</NAME>
      <OUTCOME>0_5_1</OUTCOME>
      <OUTCOME>1_2</OUTCOME>
      <OUTCOME>2_</OUTCOME>
      <OUTCOME>_0_5</OUTCOME>
      <PROPERTY />
    </VARIABLE>
    <VARIABLE TYPE="nature">
      <NAME>RestingBP</NAME>
      <OUTCOME>120_140</OUTCOME>
      <OUTCOME>140_</OUTCOME>
      <OUTCOME>90_120</OUTCOME>
      <PROPERTY />
    </VARIABLE>
    <VARIABLE TYPE="nature">
      <NAME>RestingECG</NAME>
      <OUTCOME>LVH</OUTCOME>
      <OUTCOME>Normal</OUTCOME>
      <OUTCOME>ST</OUTCOME>
      <PROPERTY />
    </VARIABLE>
    <VARIABLE TYPE="nature">
      <NAME>ST_Slope</NAME>
      <OUTCOME>Down</OUTCOME>
      <OUTCOME>Flat</OUTCOME>
      <OUTCOME>Up</OUTCOME>
      <PROPERTY />
    </VARIABLE>
    <VARIABLE TYPE="nature">
      <NAME>Sex</NAME>
      <OUTCOME>F</OUTCOME>
      <OUTCOME>M</OUTCOME>
      <PROPERTY />
    </VARIABLE>
    <DEFINITION>
      <FOR>Age</FOR>
      <TABLE>0.06584362139917696 0.24279835390946503 0.448559670781893 0.22633744855967078 0.01646090534979424 </TABLE>
    </DEFINITION>
    <DEFINITION>
      <FOR>ChestPainType</FOR>
      <GIVEN>HeartDisease</GIVEN>
      <TABLE>0.23255813953488372 0.26356589147286824 0.3953488372093023 0.10852713178294573 0.7631578947368421 0.05263157894736842 0.13157894736842105 0.05263157894736842 </TABLE>
    </DEFINITION>
    <DEFINITION>
      <FOR>Cholesterol</FOR>
      <GIVEN>Age</GIVEN>
      <GIVEN>Sex</GIVEN>
      <TABLE>0.6 0.0 0.4 0.36363636363636365 0.18181818181818182 0.45454545454545453 0.4 0.4666666666666667 0.13333333333333333 0.29545454545454547 0.5 0.20454545454545456 0.14285714285714285 0.75 0.10714285714285714 0.4444444444444444 0.4074074074074074 0.14814814814814814 0.2727272727272727 0.6363636363636364 0.09090909090909091 0.30303030303030304 0.5757575757575758 0.12121212121212122 0.0 0.75 0.25 0.3333333333333333 0.3333333333333333 0.3333333333333333 </TABLE>
    </DEFINITION>
    <DEFINITION>
      <FOR>ExerciseAngina</FOR>
      <GIVEN>MaxHR</GIVEN>
      <GIVEN>Sex</GIVEN>
      <TABLE>0.7727272727272727 0.22727272727272727 0.8 0.2 0.75 0.25 0.30612244897959184 0.6938775510204082 0.6111111111111112 0.3888888888888889 0.6097560975609756 0.3902439024390244 0.9444444444444444 0.05555555555555555 0.8863636363636364 0.11363636363636363 </TABLE>
    </DEFINITION>
    <DEFINITION>
      <FOR>FastingBS</FOR>
      <GIVEN>Age</GIVEN>
      <GIVEN>RestingBP</GIVEN>
      <TABLE>1.0 0.0 1.0 0.0 1.0 0.0 0.84 0.16 1.0 0.0 0.9642857142857143 0.03571428571428571 0.7818181818181819 0.21818181818181817 0.7692307692307693 0.23076923076923078 0.8928571428571429 0.10714285714285714 0.8181818181818182 0.18181818181818182 0.6666666666666666 0.3333333333333333 1.0 0.0 0.5 0.5 1.0 0.0 0.6666666666666666 0.3333333333333333 </TABLE>
    </DEFINITION>
    <DEFINITION>
      <FOR>HeartDisease</FOR>
      <GIVEN>Age</GIVEN>
      <GIVEN>Cholesterol</GIVEN>
      <GIVEN>ExerciseAngina</GIVEN>
      <GIVEN>FastingBS</GIVEN>
      <GIVEN>RestingECG</GIVEN>
      <GIVEN>Sex</GIVEN>
      <TABLE>0.5 0.5 1.0 0.0 1.0 0.0 0.0 1.0 0.5 0.5 0.5 0.5 0.5 0.5 0.5 0.5 0.5 0.5 0.5 0.5 0.5 0.5 0.5 0.5 0.5 0.5 0.5 0.5 0.5 0.5 0.0 1.0 0.5 0.5 0.5 0.5 0.5 0.5 0.5 0.5 0.5 0.5 0.5 0.5 0.5 0.5 0.5 0.5 0.5 0.5 1.0 0.0 0.5 0.5 0.5 0.5 0.5 0.5 0.5 0.5 0.5 0.5 0.5 0.5 0.5 0.5 0.5 0.5 0.5 0.5 0.5 0.5 0.5 0.5 0.0 1.0 0.5 0.5 0.5 0.5 0.5 0.5 0.5 0.5 0.5 0.5 0.5 0.5 0.5 0.5 0.5 0.5 0.5 0.5 0.5 0.5 0.5 0.5 1.0 0.0 1.0 0.0 1.0 0.0 0.5 0.5 0.5 0.5 0.5 0.5 0.5 0.5 0.5 0.5 0.5 0.5 0.5 0.5 0.5 0.5 0.5 0.5 0.0 1.0 0.5 0.5 0.5 0.5 0.5 0.5 0.5 0.5 0.5 0.5 0.5 0.5 0.5 0.5 0.5 0.5 0.5 0.5 0.5 0.5 1.0 0.0 1.0 0.0 1.0 0.0 0.7 0.3 0.5 0.5 0.5 0.5 0.5 0.5 0.5 0.5 0.5 0.5 1.0 0.0 0.5 0.5 0.5 0.5 1.0 0.0 0.5 0.5 0.5 0.5 0.5 0.5 0.5 0.5 0.5 0.5 0.5 0.5 0.5 0.5 0.5 0.5 0.5 0.5 0.5 0.5 0.5 0.5 1.0 0.0 0.625 0.375 1.0 0.0 0.875 0.125 0.5 0.5 0.5 0.5 0.5 0.5 0.5 0.5 0.5 0.5 1.0 0.0 0.5 0.5 0.5 0.5 0.5 0.5 0.0 1.0 0.5 0.5 0.0 1.0 0.5 0.5 0.5 0.5 0.0 1.0 0.0 1.0 0.5 0.5 0.5 0.5 0.5 0.5 0.5 0.5 0.5 0.5 0.0 1.0 1.0 0.0 0.6666666666666666 0.3333333333333333 0.5 0.5 0.5 0.5 0.5 0.5 0.5 0.5 0.5 0.5 0.5 0.5 0.5 0.5 0.5 0.5 1.0 0.0 0.0 1.0 0.5 0.5 0.0 1.0 0.5 0.5 0.5 0.5 0.5 0.5 0.5 0.5 0.5 0.5 0.5 0.5 0.5 0.5 0.5 0.5 0.5 0.5 0.3333333333333333 0.6666666666666666 1.0 0.0 0.6 0.4 0.5 0.5 0.5 0.5 0.5 0.5 1.0 0.0 0.5 0.5 0.6666666666666666 0.3333333333333333 0.5 0.5 0.5 0.5 0.5 0.5 0.42857142857142855 0.5714285714285714 0.5 0.5 0.7142857142857143 0.2857142857142857 0.0 1.0 0.5 0.5 0.5 0.5 0.0 1.0 0.5 0.5 0.0 1.0 0.5 0.5 0.5 0.5 0.8 0.2 0.2857142857142857 0.7142857142857143 1.0 0.0 0.6666666666666666 0.3333333333333333 0.5 0.5 0.0 1.0 0.0 1.0 0.6666666666666666 0.3333333333333333 1.0 0.0 1.0 0.0 0.5 0.5 0.5 0.5 0.0 1.0 0.1111111111111111 0.8888888888888888 0.3333333333333333 0.6666666666666666 0.0 1.0 0.0 1.0 0.5 0.5 0.5 0.5 0.0 1.0 0.5 0.5 0.5 0.5 0.5 0.5 0.5 0.5 1.0 0.0 0.6666666666666666 0.3333333333333333 1.0 0.0 0.75 0.25 0.5 0.5 0.5 0.5 0.5 0.5 0.0 1.0 1.0 0.0 1.0 0.0 0.5 0.5 0.5 0.5 0.5 0.5 0.0 1.0 0.5 0.5 0.0 1.0 0.5 0.5 0.5 0.5 0.5 0.5 0.5 0.5 0.5 0.5 0.5 0.5 0.5 0.5 0.5 0.5 0.5 0.5 1.0 0.0 1.0 0.0 0.3333333333333333 0.6666666666666666 0.5 0.5 0.5 0.5 0.5 0.5 1.0 0.0 0.5 0.5 0.5 0.5 0.5 0.5 0.5 0.5 0.5 0.5 0.0 1.0 0.5 0.5 0.5 0.5 0.5 0.5 0.5 0.5 0.5 0.5 0.5 0.5 0.0 1.0 0.5 0.5 0.5 0.5 0.5 0.5 0.6666666666666666 0.3333333333333333 0.2857142857142857 0.7142857142857143 0.75 0.25 0.5 0.5 0.5 0.5 0.5 0.5 0.5 0.5 0.0 1.0 0.0 1.0 0.5 0.5 0.5 0.5 0.5 0.5 0.0 1.0 0.0 1.0 0.0 1.0 0.0 1.0 0.5 0.5 0.5 0.5 0.5 0.5 0.0 1.0 0.5 0.5 1.0 0.0 0.5 0.5 0.5 0.5 0.5 0.5 0.5 0.5 1.0 0.0 1.0 0.0 0.5 0.5 0.5 0.5 0.5 0.5 0.5 0.5 0.5 0.5 0.0 1.0 0.5 0.5 0.5 0.5 0.5 0.5 0.0 1.0 0.0 1.0 0.0 1.0 0.5 0.5 0.5 0.5 0.5 0.5 0.5 0.5 0.5 0.5 0.5 0.5 0.5 0.5 0.5 0.5 0.5 0.5 0.5 0.5 0.5 0.5 0.5 0.5 0.5 0.5 0.5 0.5 0.5 0.5 0.5 0.5 0.5 0.5 0.5 0.5 0.5 0.5 0.5 0.5 0.5 0.5 0.5 0.5 0.5 0.5 0.5 0.5 0.5 0.5 0.5 0.5 0.5 0.5 0.5 0.5 0.5 0.5 0.5 0.5 0.5 0.5 0.5 0.5 0.5 0.5 0.5 0.5 1.0 0.0 0.5 0.5 0.5 0.5 0.5 0.5 1.0 0.0 0.5 0.5 0.5 0.5 0.5 0.5 0.5 0.5 0.5 0.5 1.0 0.0 0.5 0.5 0.5 0.5 0.5 0.5 0.5 0.5 0.5 0.5 0.5 0.5 0.5 0.5 0.5 0.5 0.5 0.5 0.5 0.5 0.5 0.5 0.5 0.5 0.5 0.5 1.0 0.0 0.5 0.5 0.5 0.5 0.5 0.5 0.5 0.5 0.5 0.5 0.5 0.5 0.5 0.5 0.5 0.5 0.5 0.5 0.5 0.5 0.5 0.5 0.5 0.5 0.5 0.5 0.5 0.5 0.5 0.5 0.5 0.5 0.5 0.5 0.5 0.5 0.5 0.5 0.5 0.5 0.5 0.5 </TABLE>
    </DEFINITION>
    <DEFINITION>
      <FOR>MaxHR</FOR>
      <GIVEN>Age</GIVEN>
      <GIVEN>Sex</GIVEN>
      <TABLE>0.0 0.0 0.2 0.8 0.09090909090909091 0.18181818181818182 0.09090909090909091 0.6363636363636364 0.4 0.0 0.26666666666666666 0.3333333333333333 0.1590909090909091 0.20454545454545456 0.20454545454545456 0.4318181818181818 0.32142857142857145 0.21428571428571427 0.2857142857142857 0.17857142857142858 0.2839506172839506 0.2962962962962963 0.20987654320987653 0.20987654320987653 0.2727272727272727 0.3181818181818182 0.22727272727272727 0.18181818181818182 0.12121212121212122 0.42424242424242425 0.42424242424242425 0.030303030303030304 0.25 0.75 0.0 0.0 0.25 0.25 0.25 0.25 </TABLE>
    </DEFINITION>
    <DEFINITION>
      <FOR>Oldpeak</FOR>
      <GIVEN>ExerciseAngina</GIVEN>
      <GIVEN>HeartDisease</GIVEN>
      <TABLE>0.1504424778761062 0.22123893805309736 0.04424778761061947 0.584070796460177 0.21568627450980393 0.23529411764705882 0.23529411764705882 0.3137254901960784 0.1875 0.3125 0.0 0.5 0.14285714285714285 0.3492063492063492 0.38095238095238093 0.12698412698412698 </TABLE>
    </DEFINITION>
    <DEFINITION>
      <FOR>RestingBP</FOR>
      <GIVEN>Age</GIVEN>
      <GIVEN>Cholesterol</GIVEN>
      <TABLE>0.2857142857142857 0.14285714285714285 0.5714285714285714 1.0 0.0 0.0 0.42857142857142855 0.0 0.5714285714285714 0.42105263157894735 0.05263157894736842 0.5263157894736842 0.5517241379310345 0.10344827586206896 0.3448275862068966 0.09090909090909091 0.18181818181818182 0.7272727272727273 0.5 0.15 0.35 0.5370370370370371 0.2962962962962963 0.16666666666666666 0.4 0.26666666666666666 0.3333333333333333 0.25 0.5 0.25 0.45454545454545453 0.24242424242424243 0.30303030303030304 0.5 0.3333333333333333 0.16666666666666666 0.3333333333333333 0.3333333333333333 0.3333333333333333 0.0 0.3333333333333333 0.6666666666666666 0.0 0.0 1.0 </TABLE>
    </DEFINITION>
    <DEFINITION>
      <FOR>RestingECG</FOR>
      <GIVEN>Age</GIVEN>
      <TABLE>0.3125 0.6875 0.0 0.4067796610169492 0.5932203389830508 0.0 0.5229357798165137 0.44954128440366975 0.027522935779816515 0.5272727272727272 0.4727272727272727 0.0 0.5 0.5 0.0 </TABLE>
    </DEFINITION>
    <DEFINITION>
      <FOR>ST_Slope</FOR>
      <GIVEN>ExerciseAngina</GIVEN>
      <GIVEN>HeartDisease</GIVEN>
      <GIVEN>Oldpeak</GIVEN>
      <TABLE>0.058823529411764705 0.29411764705882354 0.6470588235294118 0.0 0.56 0.44 0.6 0.2 0.2 0.015151515151515152 0.21212121212121213 0.7727272727272727 0.09090909090909091 0.45454545454545453 0.45454545454545453 0.0 1.0 0.0 0.16666666666666666 0.75 0.08333333333333333 0.0 0.1875 0.8125 0.0 0.6666666666666666 0.3333333333333333 0.2 0.4 0.4 0.3333333333333333 0.3333333333333333 0.3333333333333333 0.0 0.125 0.875 0.0 0.8888888888888888 0.1111111111111111 0.045454545454545456 0.8181818181818182 0.13636363636363635 0.2916666666666667 0.6666666666666666 0.041666666666666664 0.0 0.5 0.5 </TABLE>
    </DEFINITION>
    <DEFINITION>
      <FOR>Sex</FOR>
      <TABLE>0.3045267489711934 0.6954732510288066 </TABLE>
    </DEFINITION>
  </NETWORK>
</BIF>
